digraph Tree {
node [shape=box] ;
0 [label="X[3] <= 0.7\ngini = 0.664\nsamples = 30\nvalue = [10, 11, 9]"] ;
1 [label="gini = 0.0\nsamples = 10\nvalue = [10, 0, 0]"] ;
0 -> 1 [labeldistance=2.5, labelangle=45, headlabel="True"] ;
2 [label="X[3] <= 1.7\ngini = 0.495\nsamples = 20\nvalue = [0, 11, 9]"] ;
0 -> 2 [labeldistance=2.5, labelangle=-45, headlabel="False"] ;
3 [label="gini = 0.0\nsamples = 11\nvalue = [0, 11, 0]"] ;
2 -> 3 ;
4 [label="gini = 0.0\nsamples = 9\nvalue = [0, 0, 9]"] ;
2 -> 4 ;
}